{
  "dw_causal_conv": {
    "channels_first_silu": {
      "gradients": {
        "bias": {
          "data": [
            2.1554813385009766,
            0.5234212875366211,
            10.86385726928711,
            6.580389499664307,
            4.503734111785889,
            -0.8045269250869751,
            4.14206075668335,
            6.996012210845947
          ],
          "dtype": "float32",
          "shape": [
            8
          ]
        },
        "weight": {
          "data": [
            [
              -0.0905480608344078,
              0.6248453855514526,
              -4.050858497619629,
              3.950350284576416
            ],
            [
              0.22272571921348572,
              -0.5780295133590698,
              0.5370177626609802,
              -1.0248072147369385
            ],
            [
              2.4776275157928467,
              1.0600581169128418,
              2.972825765609741,
              2.8107476234436035
            ],
            [
              0.024003148078918457,
              -3.14260196685791,
              0.8846071362495422,
              -3.130363702774048
            ],
            [
              -2.218707323074341,
              -0.6186622381210327,
              1.539027452468872,
              -1.5982801914215088
            ],
            [
              -0.003845503553748131,
              0.02879357896745205,
              -0.02876044064760208,
              0.04769138991832733
            ],
            [
              0.8649121522903442,
              -1.6991245746612549,
              2.888571262359619,
              -2.294759511947632
            ],
            [
              0.6720172762870789,
              1.3196269273757935,
              2.4277377128601074,
              2.4632773399353027
            ]
          ],
          "dtype": "float32",
          "shape": [
            8,
            4
          ]
        },
        "x": {
          "data": [
            [
              [
                -1.317968487739563,
                1.0268263816833496,
                -0.04284137114882469,
                0.011959204450249672,
                -0.02910175360739231
              ],
              [
                -0.14649398624897003,
                0.12210194021463394,
                -0.046506330370903015,
                0.023643145337700844,
                -0.07437605410814285
              ],
              [
                1.985342025756836,
                1.95638108253479,
                1.3440245389938354,
                1.3933764696121216,
                0.44795629382133484
              ],
              [
                -1.2980698347091675,
                0.8457250595092773,
                -1.3536767959594727,
                -0.3356458842754364,
                -0.19848205149173737
              ],
              [
                0.58101886510849,
                0.9405663013458252,
                0.1444639414548874,
                0.5267939567565918,
                -0.22392085194587708
              ],
              [
                0.07540204375982285,
                0.02931755781173706,
                0.11170078068971634,
                0.03473561629652977,
                0.07598543167114258
              ],
              [
                -3.1621804237365723,
                -0.1337180882692337,
                -1.6679816246032715,
                0.00910615548491478,
                -0.09146540611982346
              ],
              [
                0.3568814992904663,
                0.5350133776664734,
                0.7104401588439941,
                0.6173519492149353,
                0.34384727478027344
              ]
            ],
            [
              [
                0.20590464770793915,
                -1.2895574569702148,
                0.9940147399902344,
                -0.07523289322853088,
                0.02212747186422348
              ],
              [
                0.35115736722946167,
                -0.18138714134693146,
                -0.008758691139519215,
                -0.14446420967578888,
                0.047582246363162994
              ],
              [
                1.996792197227478,
                1.9931472539901733,
                1.3172715902328491,
                1.4360454082489014,
                0.4725910723209381
              ],
              [
                0.6405656933784485,
                -1.4240083694458008,
                -0.32428041100502014,
                -0.17652860283851624,
                0.011211649514734745
              ],
              [
                1.5805071592330933,
                -2.5495810508728027,
                1.2871062755584717,
                1.848692536354065,
                -0.6688528060913086
              ],
              [
                0.048904482275247574,
                0.030149513855576515,
                0.11499147862195969,
                0.02904369868338108,
                0.09000994265079498
              ],
              [
                -2.715677499771118,
                -0.1659892052412033,
                -2.0283312797546387,
                0.07292284816503525,
                -0.6029767990112305
              ],
              [
                0.732717752456665,
                0.7197684049606323,
                0.713660478591919,
                0.4383114278316498,
                0.20541700720787048
              ]
            ]
          ],
          "dtype": "float32",
          "shape": [
            2,
            8,
            5
          ]
        }
      },
      "inputs": {
        "bias": {
          "data": [
            -0.6672232747077942,
            -1.3397413492202759,
            2.307108163833618,
            0.3496239483356476,
            0.10937290638685226,
            -2.855771780014038,
            0.06349848210811615,
            0.23427723348140717
          ],
          "dtype": "float32",
          "shape": [
            8
          ]
        },
        "weight": {
          "data": [
            [
              0.7062569856643677,
              -0.12614530324935913,
              -1.125598669052124,
              0.8538632392883301
            ],
            [
              1.0602396726608276,
              -0.0841437503695488,
              -0.14540185034275055,
              -0.49243682622909546
            ],
            [
              0.6088923215866089,
              -0.10264812409877777,
              0.8863657116889954,
              0.4328296184539795
            ],
            [
              1.4574931859970093,
              -1.0676263570785522,
              -0.2956622838973999,
              -0.1931394636631012
            ],
            [
              -1.481320858001709,
              1.2233686447143555,
              1.6416395902633667,
              -0.6084016561508179
            ],
            [
              0.5985378623008728,
              -0.32446417212486267,
              0.1357233077287674,
              -0.9202319383621216
            ],
            [
              -0.7833272218704224,
              -1.5992237329483032,
              -0.13819558918476105,
              -1.4616117477416992
            ],
            [
              -0.203301802277565,
              0.2891658842563629,
              0.25956833362579346,
              0.4659518897533417
            ]
          ],
          "dtype": "float32",
          "shape": [
            8,
            4
          ]
        },
        "x": {
          "data": [
            [
              [
                -1.403343915939331,
                1.8134278059005737,
                -0.21771235764026642,
                0.24017871916294098,
                -2.138679265975952
              ],
              [
                -0.6233712434768677,
                -0.45407477021217346,
                -0.6022990345954895,
                0.33299651741981506,
                -2.1361730098724365
              ],
              [
                0.7487569451332092,
                0.8934975862503052,
                -1.0069822072982788,
                1.484300971031189,
                0.8017596006393433
              ],
              [
                -1.0416628122329712,
                -0.15777716040611267,
                -1.4392272233963013,
                0.8089224100112915,
                -0.006875272374600172
              ],
              [
                -0.48221656680107117,
                0.3968038856983185,
                -0.9664513468742371,
                0.9124721884727478,
                0.17134739458560944
              ],
              [
                0.0381508469581604,
                0.3368009626865387,
                -0.5314679145812988,
                1.1633726358413696,
                0.9118295907974243
              ],
              [
                -0.8246515989303589,
                1.102075457572937,
                -0.36431020498275757,
                0.22840054333209991,
                0.5364347100257874
              ],
              [
                -0.5519872307777405,
                0.20363901555538177,
                -0.02558218687772751,
                1.1943893432617188,
                -0.0001453678560210392
              ]
            ],
            [
              [
                0.3608245551586151,
                -2.0325286388397217,
                1.2888160943984985,
                0.02278493344783783,
                1.3153172731399536
              ],
              [
                0.3889303505420685,
                -1.1216678619384766,
                0.8754700422286987,
                -1.2107176780700684,
                -0.558198094367981
              ],
              [
                -0.3105960488319397,
                0.975784957408905,
                -0.38553252816200256,
                0.41717684268951416,
                -1.000938892364502
              ],
              [
                0.32252901792526245,
                -0.5896396636962891,
                1.2960423231124878,
                -1.168464183807373,
                0.36614423990249634
              ],
              [
                0.7027770280838013,
                -2.0490479469299316,
                0.015148276463150978,
                0.055374957621097565,
                1.2317795753479004
              ],
              [
                0.9260874390602112,
                -0.6998909711837769,
                -0.6482297778129578,
                -0.6862711906433105,
                -0.5802930593490601
              ],
              [
                -0.5429960489273071,
                1.7880771160125732,
                -0.2555215358734131,
                -0.25381359457969666,
                -0.4909800589084625
              ],
              [
                1.3175406455993652,
                0.2503259778022766,
                0.31509217619895935,
                0.6010454893112183,
                -1.1784048080444336
              ]
            ]
          ],
          "dtype": "float32",
          "shape": [
            2,
            8,
            5
          ]
        }
      },
      "outputs": {
        "y": {
          "data": [
            [
              [
                -0.25009608268737793,
                2.2672500610351562,
                -0.16836577653884888,
                -0.27592000365257263,
                -0.27531740069389343
              ],
              [
                -0.2711511254310608,
                -0.2706882953643799,
                -0.26261311769485474,
                -0.23484164476394653,
                -0.24323414266109467
              ],
              [
                2.4544875621795654,
                3.244532585144043,
                2.4052631855010986,
                2.2237014770507812,
                4.572000980377197
              ],
              [
                0.3493918478488922,
                0.4579423666000366,
                1.5299726724624634,
                -0.2375331073999405,
                1.1419174671173096
              ],
              [
                0.24139045178890228,
                -0.2625167965888977,
                0.5168505907058716,
                -0.2523556649684906,
                -0.11579939723014832
              ],
              [
                -0.15207840502262115,
                -0.12856526672840118,
                -0.2062627673149109,
                -0.06758939474821091,
                -0.12836617231369019
              ],
              [
                0.9903646111488342,
                -0.2760307788848877,
                1.5043107271194458,
                -0.27810749411582947,
                -0.2711527645587921
              ],
              [
                -0.011329778470098972,
                0.10155591368675232,
                0.06113686040043831,
                0.6898712515830994,
                0.3078581988811493
              ]
            ],
            [
              [
                -0.14766304194927216,
                -0.1596752405166626,
                2.5031538009643555,
                -0.2694703936576843,
                -0.2770647704601288
              ],
              [
                -0.27227216958999634,
                -0.25377777218818665,
                -0.26641303300857544,
                -0.1492670774459839,
                -0.22414541244506836
              ],
              [
                1.9505575895309448,
                2.2599451541900635,
                2.897984504699707,
                1.6058491468429565,
                2.724048376083374
              ],
              [
                0.16416436433792114,
                0.2175789773464203,
                -0.03410054370760918,
                1.0132628679275513,
                -0.26770707964897156
              ],
              [
                -0.1339978724718094,
                2.3210442066192627,
                -0.1992264837026596,
                -0.10635257512331009,
                2.315512180328369
              ],
              [
                -0.08876802772283554,
                -0.2304282933473587,
                -0.17441126704216003,
                -0.27229198813438416,
                -0.1774573028087616
              ],
              [
                0.6017730832099915,
                -0.19213923811912537,
                0.7855883836746216,
                -0.24160443246364594,
                -0.08020037412643433
              ],
              [
                0.5938899517059326,
                0.46190258860588074,
                0.5754124522209167,
                0.23992732167243958,
                -0.05577358230948448
              ]
            ]
          ],
          "dtype": "float32",
          "shape": [
            2,
            8,
            5
          ]
        }
      }
    },
    "channels_last_identity": {
      "gradients": {
        "weight": {
          "data": [
            [
              1.4835550785064697,
              1.1213011741638184,
              1.6984481811523438,
              1.017246961593628
            ],
            [
              1.8083165884017944,
              2.462773561477661,
              2.798039674758911,
              2.471759080886841
            ],
            [
              0.5555316209793091,
              2.1735434532165527,
              5.0427141189575195,
              3.2146830558776855
            ],
            [
              0.3697381615638733,
              0.6408758163452148,
              1.6376689672470093,
              0.08236750960350037
            ],
            [
              1.6624085903167725,
              2.3969645500183105,
              3.7382805347442627,
              5.347133159637451
            ],
            [
              -1.3566418886184692,
              -2.405449867248535,
              -1.1044445037841797,
              -0.09804314374923706
            ],
            [
              0.9434627890586853,
              0.9252288341522217,
              2.943556547164917,
              1.4980111122131348
            ],
            [
              -2.258402109146118,
              -0.7201998829841614,
              0.2729048728942871,
              0.6369518041610718
            ]
          ],
          "dtype": "float32",
          "shape": [
            8,
            4
          ]
        },
        "x": {
          "data": [
            [
              [
                1.0344915390014648,
                -1.8999264240264893,
                -2.113163709640503,
                0.30875301361083984,
                -2.823434352874756,
                2.104858160018921,
                2.41780948638916,
                -0.1015201210975647
              ],
              [
                1.0344915390014648,
                -1.8999264240264893,
                -2.113163709640503,
                0.30875301361083984,
                -2.823434352874756,
                2.104858160018921,
                2.41780948638916,
                -0.1015201210975647
              ],
              [
                0.9688658714294434,
                -0.011431396007537842,
                -2.1157279014587402,
                1.6178805828094482,
                -1.4476548433303833,
                1.4911744594573975,
                0.6342258453369141,
                -0.9719574451446533
              ],
              [
                -0.06729185581207275,
                -0.4364386796951294,
                -2.6242971420288086,
                2.6250202655792236,
                -2.096417188644409,
                1.2785956859588623,
                0.9454948306083679,
                0.3304940462112427
              ],
              [
                0.3794008493423462,
                -1.212552547454834,
                -1.4034830331802368,
                0.7221722602844238,
                -1.871308445930481,
                0.6754277348518372,
                0.8853225708007812,
                1.100415587425232
              ]
            ],
            [
              [
                1.0344915390014648,
                -1.8999264240264893,
                -2.113163709640503,
                0.30875301361083984,
                -2.823434352874756,
                2.104858160018921,
                2.41780948638916,
                -0.1015201210975647
              ],
              [
                1.0344915390014648,
                -1.8999264240264893,
                -2.113163709640503,
                0.30875301361083984,
                -2.823434352874756,
                2.104858160018921,
                2.41780948638916,
                -0.1015201210975647
              ],
              [
                0.9688658714294434,
                -0.011431396007537842,
                -2.1157279014587402,
                1.6178805828094482,
                -1.4476548433303833,
                1.4911744594573975,
                0.6342258453369141,
                -0.9719574451446533
              ],
              [
                -0.06729185581207275,
                -0.4364386796951294,
                -2.6242971420288086,
                2.6250202655792236,
                -2.096417188644409,
                1.2785956859588623,
                0.9454948306083679,
                0.3304940462112427
              ],
              [
                0.3794008493423462,
                -1.212552547454834,
                -1.4034830331802368,
                0.7221722602844238,
                -1.871308445930481,
                0.6754277348518372,
                0.8853225708007812,
                1.100415587425232
              ]
            ]
          ],
          "dtype": "float32",
          "shape": [
            2,
            5,
            8
          ]
        }
      },
      "inputs": {
        "weight": {
          "data": [
            [
              0.0656256377696991,
              1.0361577272415161,
              -0.44669270515441895,
              0.3794008493423462
            ],
            [
              -1.8884949684143066,
              0.42500728368759155,
              0.7761138677597046,
              -1.212552547454834
            ],
            [
              0.0025642048567533493,
              0.5085693001747131,
              -1.2208142280578613,
              -1.4034830331802368
            ],
            [
              -1.3091275691986084,
              -1.0071396827697754,
              1.9028480052947998,
              0.7221722602844238
            ],
            [
              -1.375779628753662,
              0.6487623453140259,
              -0.2251087874174118,
              -1.871308445930481
            ],
            [
              0.6136837005615234,
              0.21257881820201874,
              0.6031678915023804,
              0.6754277348518372
            ],
            [
              1.7835837602615356,
              -0.31126901507377625,
              0.06017226725816727,
              0.8853225708007812
            ],
            [
              0.8704373240470886,
              -1.302451491355896,
              -0.7699215412139893,
              1.100415587425232
            ]
          ],
          "dtype": "float32",
          "shape": [
            8,
            4
          ]
        },
        "x": {
          "data": [
            [
              [
                -0.28412994742393494,
                1.0178614854812622,
                -0.6202321648597717,
                -0.7325469255447388,
                -0.549595057964325,
                0.538962721824646,
                1.5543527603149414,
                0.07151920348405838
              ],
              [
                0.14919064939022064,
                0.40063583850860596,
                0.23061898350715637,
                1.2172353267669678,
                0.9602746367454529,
                -0.5838967561721802,
                0.06416445970535278,
                -0.7128338813781738
              ],
              [
                0.859196126461029,
                1.1894564628601074,
                1.0022481679916382,
                -1.8702820539474487,
                0.06432053446769714,
                -1.1741998195648193,
                0.19794674217700958,
                -0.12244691699743271
              ],
              [
                0.17587080597877502,
                0.6436752676963806,
                1.2743014097213745,
                1.3173408508300781,
                1.062542200088501,
                -0.10659856349229813,
                1.1167675256729126,
                -0.3382110893726349
              ],
              [
                -0.8898445963859558,
                -1.6142796277999878,
                -0.6387637853622437,
                -0.25646844506263733,
                0.35619646310806274,
                1.337499976158142,
                -0.17165318131446838,
                0.17196989059448242
              ]
            ],
            [
              [
                -0.11604269593954086,
                0.5944166779518127,
                1.2678494453430176,
                -0.6242310404777527,
                0.6033663749694824,
                -0.4672117233276367,
                0.5529268383979797,
                -0.9590736627578735
              ],
              [
                1.734537124633789,
                -0.20459739863872528,
                -0.32270461320877075,
                0.509280800819397,
                0.6483625769615173,
                -0.8444961309432983,
                -1.2279812097549438,
                -0.6580137014389038
              ],
              [
                -1.2214500904083252,
                -0.5349994897842407,
                0.6157634854316711,
                2.1414196491241455,
                0.6702355146408081,
                0.12539200484752655,
                -0.2161807119846344,
                1.660649061203003
              ],
              [
                0.40127620100975037,
                -0.30840930342674255,
                1.5948691368103027,
                -0.3205477297306061,
                0.27877360582351685,
                1.4076038599014282,
                0.901560366153717,
                1.3313158750534058
              ],
              [
                0.20864346623420715,
                1.287999153137207,
                -1.1892670392990112,
                -1.2988330125808716,
                1.25265634059906,
                -0.33109861612319946,
                -1.2738922834396362,
                0.19207699596881866
              ]
            ]
          ],
          "dtype": "float32",
          "shape": [
            2,
            5,
            8
          ]
        }
      },
      "outputs": {
        "y": {
          "data": [
            [
              [
                -0.10779914259910583,
                -1.23421049118042,
                0.8704853057861328,
                -0.5290250778198242,
                1.0284619331359863,
                0.3640303611755371,
                1.3761036396026611,
                0.07870084792375565
              ],
              [
                0.1835218369960785,
                0.3041844069957733,
                0.4335184395313263,
                -0.5148718357086182,
                -1.6732513904571533,
                -0.06929504871368408,
                0.1503351777791977,
                -0.8394777178764343
              ],
              [
                -0.035066068172454834,
                -0.6987408995628357,
                -2.0036122798919678,
                1.7033250331878662,
                -0.6930863857269287,
                -1.030702829360962,
                -0.3047142028808594,
                0.32093337178230286
              ],
              [
                -0.1811322718858719,
                -1.609289526939392,
                -2.8963239192962646,
                -2.874444007873535,
                -0.6237115859985352,
                -0.5736106634140015,
                3.7529563903808594,
                0.7127862572669983
              ],
              [
                0.48388540744781494,
                2.205893039703369,
                -0.14888717234134674,
                2.6116039752960205,
                -2.185138702392578,
                0.2311498075723648,
                -0.03194199502468109,
                -0.011361679993569851
              ]
            ],
            [
              [
                -0.0440266989171505,
                -0.7207614779472351,
                -1.7794052362442017,
                -0.45080235600471497,
                -1.129084587097168,
                -0.3155677616596222,
                0.4895186126232147,
                -1.0553796291351318
              ],
              [
                0.7099202871322632,
                0.7094201445579529,
                -1.0948982238769531,
                -0.8200282454490662,
                -1.349109411239624,
                -0.8522032499313354,
                -1.0538886785507202,
                0.01432295236736536
              ],
              [
                -1.3584628105163574,
                0.742555558681488,
                0.1745380014181137,
                3.1442456245422363,
                -1.0087281465530396,
                -0.523999035358429,
                -0.437389075756073,
                3.583169937133789
              ],
              [
                2.4874961376190186,
                -1.2507662773132324,
                -3.1509711742401123,
                4.147586822509766,
                -1.0820132493972778,
                0.560124933719635,
                2.1535873413085938,
                0.2086486667394638
              ],
              [
                -1.2518725395202637,
                -1.642124891281128,
                0.03440806642174721,
                -4.371356964111328,
                -2.864041328430176,
                0.13379044830799103,
                -3.1964735984802246,
                -3.549318790435791
              ]
            ]
          ],
          "dtype": "float32",
          "shape": [
            2,
            5,
            8
          ]
        }
      }
    }
  },
  "layer_norms": {
    "gated_rms_norm": {
      "inputs": {
        "b": {
          "data": [
            -0.5187486410140991,
            1.2267580032348633,
            0.6254805326461792,
            -0.9116847515106201,
            0.568683385848999,
            -0.33366551995277405
          ],
          "dtype": "float32",
          "shape": [
            6
          ]
        },
        "w": {
          "data": [
            0.13913755118846893,
            -0.10821663588285446,
            -0.7174222469329834,
            0.756648600101471,
            0.3714880645275116,
            -1.0049413442611694
          ],
          "dtype": "float32",
          "shape": [
            6
          ]
        },
        "x": {
          "data": [
            [
              [
                0.19401879608631134,
                2.1613736152648926,
                -0.17205022275447845,
                0.8490601181983948,
                -1.9243990182876587,
                0.6529855132102966
              ],
              [
                -0.6494408249855042,
                -0.8175247311592102,
                0.5279644727706909,
                -1.2753498554229736,
                -1.6621263027191162,
                -0.3033137321472168
              ],
              [
                -0.09256987273693085,
                0.1992371529340744,
                -1.1204328536987305,
                1.8576586246490479,
                -0.7145188450813293,
                0.6881051063537598
              ],
              [
                0.7968308329582214,
                -0.03340187668800354,
                1.491731882095337,
                -0.5165092945098877,
                -0.25409597158432007,
                1.4746155738830566
              ]
            ],
            [
              [
                -0.32603731751441956,
                -1.1599626541137695,
                2.355130910873413,
                -0.6924470663070679,
                0.18374282121658325,
                -1.1835099458694458
              ],
              [
                -1.8028671741485596,
                -1.5807569026947021,
                0.8386695384979248,
                1.4191802740097046,
                0.6469367146492004,
                0.4252724051475525
              ],
              [
                -1.5892407894134521,
                0.622344970703125,
                1.6898036003112793,
                -0.6648038625717163,
                0.9425426721572876,
                0.07832549512386322
              ],
              [
                0.08465634286403656,
                -0.1408299207687378,
                0.33156055212020874,
                -0.5889761447906494,
                -1.0722894668579102,
                0.0953957587480545
              ]
            ]
          ],
          "dtype": "float32",
          "shape": [
            2,
            4,
            6
          ]
        },
        "z": {
          "data": [
            [
              [
                -0.6973658800125122,
                -1.8688257932662964,
                -0.8831874132156372,
                -1.6627042293548584,
                -0.43243223428726196,
                0.9504957795143127
              ],
              [
                0.6620457768440247,
                0.04456767067313194,
                0.572030246257782,
                2.195051431655884,
                -0.2473943531513214,
                -1.3831175565719604
              ],
              [
                0.06023683398962021,
                -0.2430812269449234,
                1.3181238174438477,
                0.5210878252983093,
                -0.6087267994880676,
                0.0999915599822998
              ],
              [
                -0.8959601521492004,
                -0.9372562766075134,
                -0.2665892243385315,
                1.5304361581802368,
                0.5583863854408264,
                -0.9450810551643372
              ]
            ],
            [
              [
                0.13210579752922058,
                1.2451770305633545,
                0.14667949080467224,
                -0.46050477027893066,
                0.6020439863204956,
                1.3719264268875122
              ],
              [
                -1.9692555665969849,
                0.913719654083252,
                1.224851369857788,
                -0.24059748649597168,
                -0.3805355727672577,
                0.5274348855018616
              ],
              [
                1.0413109064102173,
                -0.2549177408218384,
                0.533146321773529,
                -1.3993024826049805,
                -1.1586174964904785,
                0.7179053425788879
              ],
              [
                -0.22063623368740082,
                -0.005207659676671028,
                -1.0366921424865723,
                -0.6201579570770264,
                0.5406976342201233,
                -0.019783256575465202
              ]
            ]
          ],
          "dtype": "float32",
          "shape": [
            2,
            4,
            6
          ]
        }
      },
      "outputs": {
        "y_norm_after": {
          "data": [
            [
              [
                -0.5377048254013062,
                1.4037679433822632,
                0.5288795828819275,
                -1.4274836778640747,
                0.9372360706329346,
                -1.696381688117981
              ],
              [
                -0.5566587448120117,
                1.2286938428878784,
                0.4924410581588745,
                -2.7424814701080322,
                0.6330198645591736,
                -0.4148642122745514
              ],
              [
                -0.5194882750511169,
                1.2310216426849365,
                2.1725049018859863,
                -0.0611497163772583,
                0.6740565896034241,
                -0.4008508324623108
              ],
              [
                -0.6058847904205322,
                1.2238725423812866,
                0.9999542236328125,
                -2.3995907306671143,
                0.4672297537326813,
                0.8524634838104248
              ]
            ],
            [
              [
                -0.5232728719711304,
                1.3986647129058838,
                0.43710869550704956,
                -0.7794705629348755,
                0.606293261051178,
                1.5099945068359375
              ],
              [
                -0.4122120440006256,
                1.4232240915298462,
                -0.37761998176574707,
                -1.1119362115859985,
                0.5032968521118164,
                -0.5833035111427307
              ],
              [
                -0.8190762996673584,
                1.2399861812591553,
                -0.09334462881088257,
                -0.6658291816711426,
                0.3976377844810486,
                -0.4006926119327545
              ],
              [
                -0.525859534740448,
                1.2265146970748901,
                1.022360920906067,
                -0.31743675470352173,
                -0.2681370973587036,
                -0.32789331674575806
              ]
            ]
          ],
          "dtype": "float32",
          "shape": [
            2,
            4,
            6
          ]
        },
        "y_norm_before": {
          "data": [
            [
              [
                0.11529718339443207,
                -0.2602487802505493,
                -0.18681569397449493,
                0.10694392770528793,
                -0.0005445201531983912,
                -0.58455890417099
              ],
              [
                -0.2665404677391052,
                0.029986975714564323,
                0.08844704180955887,
                -3.730926990509033,
                0.006143943872302771,
                0.006925222929567099
              ],
              [
                -0.01650291681289673,
                -0.12871235609054565,
                1.5050569772720337,
                0.17182596027851105,
                -0.0637596920132637,
                -0.05463222786784172
              ],
              [
                0.10428503900766373,
                -0.3246212303638458,
                0.05851614847779274,
                -1.666890025138855,
                0.16653577983379364,
                0.5026907324790955
              ]
            ],
            [
              [
                -0.0391455814242363,
                1.285651683807373,
                -0.05988596752285957,
                0.23900678753852844,
                0.24300095438957214,
                0.7028091549873352
              ],
              [
                0.17432375252246857,
                0.8908233642578125,
                0.12875303626060486,
                0.004035573452711105,
                -0.1180657297372818,
                -0.22599861025810242
              ],
              [
                -0.5556398034095764,
                -0.12965038418769836,
                -0.1641601026058197,
                0.38052627444267273,
                -0.24649029970169067,
                -0.1959095299243927
              ],
              [
                0.04872912913560867,
                -0.003261593170464039,
                -0.04637601971626282,
                0.3824724555015564,
                -0.06581417471170425,
                0.005062220152467489
              ]
            ]
          ],
          "dtype": "float32",
          "shape": [
            2,
            4,
            6
          ]
        }
      }
    },
    "layer_norm_dropout_rowscale": {
      "gradients": {
        "b": {
          "data": [
            8.0,
            8.0,
            8.0,
            8.0,
            8.0,
            8.0
          ],
          "dtype": "float32",
          "shape": [
            6
          ]
        },
        "residual": {
          "data": [
            [
              [
                1.564218282699585,
                -0.19493500888347626,
                -0.28113049268722534,
                0.2561042606830597,
                -0.2475266307592392,
                -1.096730351448059
              ],
              [
                1.5175420045852661,
                -0.836618959903717,
                -0.35539525747299194,
                0.08314089477062225,
                0.42641040682792664,
                -0.8350788354873657
              ],
              [
                0.634506106376648,
                -0.22431670129299164,
                -0.11481912434101105,
                0.3431343138217926,
                -0.3108397424221039,
                -0.32766473293304443
              ],
              [
                0.9759496450424194,
                -0.7201898694038391,
                0.7119122743606567,
                -0.37773436307907104,
                -0.09216810762882233,
                -0.497769296169281
              ]
            ],
            [
              [
                0.6991223096847534,
                -0.4218677282333374,
                -0.0720980167388916,
                0.07206232100725174,
                0.33056730031967163,
                -0.6077861189842224
              ],
              [
                1.724110722541809,
                -1.4774196147918701,
                -0.6460831761360168,
                0.221553236246109,
                0.6753313541412354,
                -0.4974920153617859
              ],
              [
                1.4042389392852783,
                -0.9817709922790527,
                -0.2750032842159271,
                0.026537146419286728,
                0.5564504265785217,
                -0.7304520606994629
              ],
              [
                0.89150470495224,
                -1.3557785749435425,
                0.0037300745025277138,
                -0.05077362805604935,
                1.1652010679244995,
                -0.6538832187652588
              ]
            ]
          ],
          "dtype": "float32",
          "shape": [
            2,
            4,
            6
          ]
        },
        "w": {
          "data": [
            -1.4077452421188354,
            0.5152387619018555,
            -1.3625316619873047,
            2.893479347229004,
            0.6884336471557617,
            -1.3268749713897705
          ],
          "dtype": "float32",
          "shape": [
            6
          ]
        },
        "x": {
          "data": [
            [
              [
                1.0169217586517334,
                -0.12673015892505646,
                -0.1827671378850937,
                0.16649721562862396,
                -0.16092076897621155,
                -0.7130008339881897
              ],
              [
                0.922614336013794,
                -0.5086361169815063,
                -0.2160683274269104,
                0.0,
                0.2592431604862213,
                -0.5076997876167297
              ],
              [
                0.5313403606414795,
                -0.18784455955028534,
                -0.09615043550729752,
                0.2873433530330658,
                -0.2602996230125427,
                -0.27438899874687195
              ],
              [
                0.07110656797885895,
                -0.05247220769524574,
                0.05186910927295685,
                -0.027521289885044098,
                -0.006715262308716774,
                -0.03626690059900284
              ]
            ],
            [
              [
                0.4893573820590973,
                -0.29529038071632385,
                -0.050465699285268784,
                0.0504407174885273,
                0.2313837707042694,
                -0.4254257380962372
              ],
              [
                1.610819697380066,
                -1.3803386688232422,
                -0.6036291718482971,
                0.20699501037597656,
                0.6309554576873779,
                -0.46480193734169006
              ],
              [
                0.0,
                -1.0358299016952515,
                -0.29014572501182556,
                0.02799835428595543,
                0.5870900750160217,
                -0.7706727385520935
              ],
              [
                0.314719557762146,
                -0.4786178469657898,
                0.0013167933793738484,
                -0.01792413927614689,
                0.41134005784988403,
                0.0
              ]
            ]
          ],
          "dtype": "float32",
          "shape": [
            2,
            4,
            6
          ]
        }
      },
      "inputs": {
        "b": {
          "data": [
            1.509506344795227,
            0.684931755065918,
            -0.984860360622406,
            -0.45098426938056946,
            -0.8621847033500671,
            0.02268788032233715
          ],
          "dtype": "float32",
          "shape": [
            6
          ]
        },
        "residual": {
          "data": [
            [
              [
                -0.6319628357887268,
                0.8113219738006592,
                0.17381902039051056,
                0.2937086224555969,
                -1.124961495399475,
                -0.23961608111858368
              ],
              [
                -0.5151615738868713,
                1.7756582498550415,
                -0.07234475016593933,
                1.6648353338241577,
                0.08550623804330826,
                -0.26627451181411743
              ],
              [
                1.0564053058624268,
                -1.1517184972763062,
                -0.4014408588409424,
                -1.5603721141815186,
                1.1407930850982666,
                0.6936987638473511
              ],
              [
                0.5796616077423096,
                -0.6563984751701355,
                -1.8483283519744873,
                -0.14057987928390503,
                0.9203487634658813,
                -0.7993603348731995
              ]
            ],
            [
              [
                -2.263866424560547,
                0.06797163933515549,
                -0.6775805950164795,
                -0.10293835401535034,
                -1.454076886177063,
                -2.894040107727051
              ],
              [
                -1.6564109325408936,
                -1.6152863502502441,
                -0.24238434433937073,
                -0.3034454584121704,
                -0.7713724374771118,
                0.11391157656908035
              ],
              [
                -1.0759912729263306,
                1.0262004137039185,
                -0.027773050591349602,
                -0.8144742846488953,
                -0.2853190004825592,
                -0.6643692851066589
              ],
              [
                -1.0140730142593384,
                -0.20968464016914368,
                1.1797840595245361,
                0.5751741528511047,
                0.5141651630401611,
                0.43737342953681946
              ]
            ]
          ],
          "dtype": "float32",
          "shape": [
            2,
            4,
            6
          ]
        },
        "rowscale": {
          "data": [
            0.585103452205658,
            0.5471696257591248,
            0.7536669969558716,
            0.06557296216487885,
            0.6299636363983154,
            0.8408611416816711,
            0.9495564103126526,
            0.3177185654640198
          ],
          "dtype": "float32",
          "shape": [
            8
          ]
        },
        "w": {
          "data": [
            1.1394907236099243,
            -1.1053436994552612,
            -0.5574292540550232,
            -0.436138778924942,
            0.37806934118270874,
            -0.9516920447349548
          ],
          "dtype": "float32",
          "shape": [
            6
          ]
        },
        "x": {
          "data": [
            [
              [
                1.9982645511627197,
                1.9809941053390503,
                1.4457709789276123,
                1.981292724609375,
                1.198429822921753,
                1.507352590560913
              ],
              [
                1.235619068145752,
                -2.1880924701690674,
                -0.13573011755943298,
                0.6757036447525024,
                -2.466295003890991,
                -0.39684849977493286
              ],
              [
                0.30813276767730713,
                0.05800609663128853,
                0.23762241005897522,
                0.2528969347476959,
                1.6511502265930176,
                -1.3474692106246948
              ],
              [
                -0.9442060589790344,
                -0.39840373396873474,
                -0.2501926124095917,
                0.6572325825691223,
                -1.4027116298675537,
                0.5760926008224487
              ]
            ],
            [
              [
                -1.262082815170288,
                -1.0164090394973755,
                0.5896958708763123,
                1.1274868249893188,
                -0.9889922738075256,
                -1.906023383140564
              ],
              [
                0.9742190837860107,
                0.6774224042892456,
                -0.6134427785873413,
                1.0924346446990967,
                0.028180545195937157,
                0.6256685256958008
              ],
              [
                -0.5985562205314636,
                -1.4145138263702393,
                -1.6237581968307495,
                -2.390204429626465,
                -0.22324469685554504,
                -0.6066899299621582
              ],
              [
                -1.320660948753357,
                -0.8876468539237976,
                -1.185133934020996,
                -0.5518158078193665,
                0.7631495594978333,
                1.1235073804855347
              ]
            ]
          ],
          "dtype": "float32",
          "shape": [
            2,
            4,
            6
          ]
        }
      },
      "outputs": {
        "dropout_mask": {
          "data": [
            [
              1,
              1,
              1,
              1,
              1,
              1
            ],
            [
              1,
              1,
              1,
              0,
              1,
              1
            ],
            [
              1,
              1,
              1,
              1,
              1,
              1
            ],
            [
              1,
              1,
              1,
              1,
              1,
              1
            ],
            [
              1,
              1,
              1,
              1,
              1,
              1
            ],
            [
              1,
              1,
              1,
              1,
              1,
              1
            ],
            [
              0,
              1,
              1,
              1,
              1,
              1
            ],
            [
              1,
              1,
              1,
              1,
              1,
              0
            ]
          ],
          "dtype": "uint8",
          "shape": [
            8,
            6
          ]
        },
        "y": {
          "data": [
            [
              1.0515992641448975,
              -0.9300013184547424,
              -1.0846954584121704,
              -0.7946372628211975,
              -1.5123053789138794,
              0.31450918316841125
            ],
            [
              1.7412773370742798,
              0.21380096673965454,
              -0.8662646412849426,
              -1.2030696868896484,
              -1.4493598937988281,
              0.5824763774871826
            ],
            [
              2.498668909072876,
              1.6754145622253418,
              -0.8517274856567383,
              0.017950518056750298,
              -0.20043590664863586,
              0.41125965118408203
            ],
            [
              2.606226921081543,
              1.107203483581543,
              -0.031946174800395966,
              -0.5749053955078125,
              -0.3677406907081604,
              0.46322935819625854
            ],
            [
              0.4937421381473541,
              0.05071337893605232,
              -1.4282174110412598,
              -1.0406079292297363,
              -0.9777529239654541,
              1.4730217456817627
            ],
            [
              0.8280441761016846,
              1.7057225704193115,
              -0.598251223564148,
              -1.0697264671325684,
              -1.0876792669296265,
              -1.3028850555419922
            ],
            [
              1.8996262550354004,
              -0.38968580961227417,
              -0.7928558588027954,
              0.4179117977619171,
              -0.5159679055213928,
              -0.07855118811130524
            ],
            [
              -0.6472469568252563,
              1.476770043373108,
              -1.4654096364974976,
              -0.6227481365203857,
              -0.5259600281715393,
              -0.418780654668808
            ]
          ],
          "dtype": "float32",
          "shape": [
            8,
            6
          ]
        }
      }
    },
    "layer_norm_dual_branch": {
      "gradients": {
        "b": {
          "data": [
            8.0,
            8.0,
            8.0,
            8.0,
            8.0,
            8.0
          ],
          "dtype": "float32",
          "shape": [
            6
          ]
        },
        "b1": {
          "data": [
            8.0,
            8.0,
            8.0,
            8.0,
            8.0,
            8.0
          ],
          "dtype": "float32",
          "shape": [
            6
          ]
        },
        "w": {
          "data": [
            -3.1165432929992676,
            -2.4859254360198975,
            1.2076395750045776,
            3.5414412021636963,
            0.09008169174194336,
            0.7633075714111328
          ],
          "dtype": "float32",
          "shape": [
            6
          ]
        },
        "w1": {
          "data": [
            -3.1165432929992676,
            -2.4859254360198975,
            1.2076395750045776,
            3.5414412021636963,
            0.09008169174194336,
            0.7633075714111328
          ],
          "dtype": "float32",
          "shape": [
            6
          ]
        },
        "x": {
          "data": [
            [
              [
                1.669595718383789,
                -0.8755260705947876,
                -0.18135514855384827,
                -0.7981468439102173,
                -0.0018874366069212556,
                0.18731975555419922
              ],
              [
                1.733034372329712,
                -1.2701537609100342,
                -0.8100152611732483,
                -0.6417769193649292,
                0.5178471803665161,
                0.4710644781589508
              ],
              [
                1.8972843885421753,
                -0.09464561194181442,
                -1.5328720808029175,
                -1.7349098920822144,
                0.48177528381347656,
                0.9833682179450989
              ],
              [
                0.09665443748235703,
                -1.363988995552063,
                -0.18252688646316528,
                0.09632930159568787,
                0.6288875341415405,
                0.7246447205543518
              ]
            ],
            [
              [
                0.9789914488792419,
                -0.6707082986831665,
                -0.6997392177581787,
                0.1591586023569107,
                -0.0840737521648407,
                0.31637123227119446
              ],
              [
                1.1193950176239014,
                -0.9082620143890381,
                -0.7098535299301147,
                -0.3549942970275879,
                0.3118831217288971,
                0.5418317914009094
              ],
              [
                1.1099610328674316,
                -1.5020490884780884,
                -0.7038379907608032,
                0.4105689227581024,
                0.7234809994697571,
                -0.038123782724142075
              ],
              [
                0.8557316660881042,
                -0.5615680813789368,
                -0.8661608099937439,
                0.6212452054023743,
                -0.4556061625480652,
                0.4063583314418793
              ]
            ]
          ],
          "dtype": "float32",
          "shape": [
            2,
            4,
            6
          ]
        },
        "x1": {
          "data": [
            [
              [
                1.669595718383789,
                -0.8755260705947876,
                -0.18135514855384827,
                -0.7981468439102173,
                -0.0018874366069212556,
                0.18731975555419922
              ],
              [
                1.733034372329712,
                -1.2701537609100342,
                -0.8100152611732483,
                -0.6417769193649292,
                0.5178471803665161,
                0.4710644781589508
              ],
              [
                1.8972843885421753,
                -0.09464561194181442,
                -1.5328720808029175,
                -1.7349098920822144,
                0.48177528381347656,
                0.9833682179450989
              ],
              [
                0.09665443748235703,
                -1.363988995552063,
                -0.18252688646316528,
                0.09632930159568787,
                0.6288875341415405,
                0.7246447205543518
              ]
            ],
            [
              [
                0.9789914488792419,
                -0.6707082986831665,
                -0.6997392177581787,
                0.1591586023569107,
                -0.0840737521648407,
                0.31637123227119446
              ],
              [
                1.1193950176239014,
                -0.9082620143890381,
                -0.7098535299301147,
                -0.3549942970275879,
                0.3118831217288971,
                0.5418317914009094
              ],
              [
                1.1099610328674316,
                -1.5020490884780884,
                -0.7038379907608032,
                0.4105689227581024,
                0.7234809994697571,
                -0.038123782724142075
              ],
              [
                0.8557316660881042,
                -0.5615680813789368,
                -0.8661608099937439,
                0.6212452054023743,
                -0.4556061625480652,
                0.4063583314418793
              ]
            ]
          ],
          "dtype": "float32",
          "shape": [
            2,
            4,
            6
          ]
        }
      },
      "inputs": {
        "b": {
          "data": [
            0.017142562195658684,
            -0.1335931122303009,
            -0.544798731803894,
            0.4924575686454773,
            -1.5618973970413208,
            -1.7761672735214233
          ],
          "dtype": "float32",
          "shape": [
            6
          ]
        },
        "b1": {
          "data": [
            -0.26044532656669617,
            0.6876188516616821,
            -1.654531717300415,
            0.855362057685852,
            1.6909420490264893,
            -0.22408562898635864
          ],
          "dtype": "float32",
          "shape": [
            6
          ]
        },
        "w": {
          "data": [
            1.390430212020874,
            -1.7144242525100708,
            -0.5428681969642639,
            -1.4207212924957275,
            0.4207755923271179,
            -0.07551708817481995
          ],
          "dtype": "float32",
          "shape": [
            6
          ]
        },
        "w1": {
          "data": [
            0.2691541910171509,
            -0.2703731656074524,
            -0.9822894930839539,
            0.3255942761898041,
            -0.08396997302770615,
            0.3290141522884369
          ],
          "dtype": "float32",
          "shape": [
            6
          ]
        },
        "x": {
          "data": [
            [
              [
                0.48571446537971497,
                -0.027205660939216614,
                -1.464331030845642,
                0.8914663195610046,
                1.5350217819213867,
                0.03417997062206268
              ],
              [
                0.18117159605026245,
                -0.5682515501976013,
                0.5176896452903748,
                -0.30688712000846863,
                -0.48422715067863464,
                -1.4171254634857178
              ],
              [
                -0.033756665885448456,
                -1.7418848276138306,
                0.21201598644256592,
                -0.949604868888855,
                0.242182657122612,
                -0.19687244296073914
              ],
              [
                -0.5479493141174316,
                -0.2723543047904968,
                -0.32525551319122314,
                0.47521114349365234,
                0.027261948212981224,
                0.8051266074180603
              ]
            ],
            [
              [
                1.0668821334838867,
                -0.08206503838300705,
                1.399341344833374,
                -1.9675308465957642,
                1.1055914163589478,
                0.587059497833252
              ],
              [
                -1.088753581047058,
                -0.49781906604766846,
                -0.716583251953125,
                0.6849656105041504,
                0.45943474769592285,
                1.750849962234497
              ],
              [
                0.22437265515327454,
                -0.059314098209142685,
                1.555342674255371,
                1.1230177879333496,
                1.2741978168487549,
                -0.6019251942634583
              ],
              [
                -1.1064493656158447,
                0.003149961121380329,
                -0.054278839379549026,
                1.8975874185562134,
                -0.6815016269683838,
                -0.2698204815387726
              ]
            ]
          ],
          "dtype": "float32",
          "shape": [
            2,
            4,
            6
          ]
        },
        "x1": {
          "data": [
            [
              [
                -0.9624184370040894,
                -1.018958568572998,
                -0.7236353158950806,
                -0.029628936201334,
                0.21321982145309448,
                0.8964972496032715
              ],
              [
                0.3405393660068512,
                0.15735681354999542,
                0.6058424115180969,
                -1.7005362510681152,
                -1.5115153789520264,
                -0.2191540002822876
              ],
              [
                0.8498853445053101,
                0.32104063034057617,
                0.07650632411241531,
                1.8713284730911255,
                0.3470313549041748,
                0.2727431356906891
              ],
              [
                -1.725793719291687,
                0.41434043645858765,
                1.7226932048797607,
                0.8037925958633423,
                0.2378745973110199,
                -0.28272494673728943
              ]
            ],
            [
              [
                0.31609439849853516,
                -0.12430933862924576,
                0.11873333901166916,
                -0.5964066386222839,
                2.6848151683807373,
                0.3506509065628052
              ],
              [
                -0.6690627336502075,
                0.13417230546474457,
                -0.9078011512756348,
                -0.28610798716545105,
                -3.0652427673339844,
                0.904270589351654
              ],
              [
                -0.815619707107544,
                0.34305915236473083,
                -0.3253553509712219,
                1.820841908454895,
                -0.28207069635391235,
                0.03201788291335106
              ],
              [
                -0.40766996145248413,
                0.8905979990959167,
                -0.09974537789821625,
                -0.3034120798110962,
                -1.1854465007781982,
                -0.1652628481388092
              ]
            ]
          ],
          "dtype": "float32",
          "shape": [
            2,
            4,
            6
          ]
        }
      },
      "outputs": {
        "y": {
          "data": [
            [
              -0.44818025827407837,
              1.1688807010650635,
              0.33029061555862427,
              -0.4515364468097687,
              -1.0039182901382446,
              -1.830224633216858
            ],
            [
              1.4304789304733276,
              -0.5821850895881653,
              -1.361036777496338,
              1.9565304517745972,
              -1.9915343523025513,
              -1.7210304737091064
            ],
            [
              1.0870071649551392,
              3.4299819469451904,
              -0.5978474020957947,
              -0.791715681552887,
              -1.3596941232681274,
              -1.7631012201309204
            ],
            [
              -2.844038963317871,
              -0.020437829196453094,
              -1.0709010362625122,
              -0.745654821395874,
              -1.5469449758529663,
              -1.794869065284729
            ],
            [
              0.431968092918396,
              0.7732362151145935,
              -0.7449347972869873,
              2.9873762130737305,
              -0.9090843200683594,
              -1.781194806098938
            ],
            [
              -0.9514884352684021,
              -0.3174252510070801,
              -0.20838041603565216,
              -0.28450819849967957,
              -2.0607635974884033,
              -1.9157097339630127
            ],
            [
              -1.477796196937561,
              0.4747377336025238,
              -0.7750601172447205,
              -2.1146960258483887,
              -1.4658174514770508,
              -1.696300745010376
            ],
            [
              -1.4241456985473633,
              -1.7336024045944214,
              -0.5861090421676636,
              -1.647535800933838,
              -2.1195180416107178,
              -1.7645502090454102
            ]
          ],
          "dtype": "float32",
          "shape": [
            8,
            6
          ]
        },
        "y1": {
          "data": [
            [
              -0.3505207598209381,
              0.8930253982543945,
              -0.07110670953989029,
              1.071702241897583,
              1.5795917510986328,
              0.01143260020762682
            ],
            [
              0.013142945244908333,
              0.6168736815452576,
              -3.1314685344696045,
              0.5198326706886292,
              1.77668035030365,
              -0.4643065929412842
            ],
            [
              -0.053345002233982086,
              1.2496122121810913,
              -1.7505203485488892,
              1.1496628522872925,
              1.6505903005599976,
              -0.28101199865341187
            ],
            [
              -0.8143019676208496,
              0.7054640054702759,
              -2.6064841747283936,
              1.1391068696975708,
              1.6879581212997437,
              -0.1426052302122116
            ],
            [
              -0.18014498054981232,
              0.8306303024291992,
              -2.0166666507720947,
              0.2835882306098938,
              1.5606666803359985,
              -0.2021816223859787
            ],
            [
              -0.44794923067092896,
              0.6586276292800903,
              -1.0458016395568848,
              1.0334234237670898,
              1.790495753288269,
              0.3838752806186676
            ],
            [
              -0.54982990026474,
              0.7835556268692017,
              -2.071176767349243,
              1.4528573751449585,
              1.671768307685852,
              -0.5720493197441101
            ],
            [
              -0.5394444465637207,
              0.43528950214385986,
              -1.7292804718017578,
              1.345795750617981,
              1.8022208213806152,
              -0.2746991515159607
            ]
          ],
          "dtype": "float32",
          "shape": [
            8,
            6
          ]
        }
      }
    },
    "layer_norm_prenorm": {
      "gradients": {
        "b": {
          "data": [
            8.0,
            8.0,
            8.0,
            8.0,
            8.0,
            8.0
          ],
          "dtype": "float32",
          "shape": [
            6
          ]
        },
        "residual": {
          "data": [
            [
              [
                -0.8655557036399841,
                0.1846679002046585,
                0.929588258266449,
                -0.7705214619636536,
                0.45802032947540283,
                0.0638008639216423
              ],
              [
                -0.45243242383003235,
                0.1076073944568634,
                1.0176314115524292,
                -0.5994895100593567,
                0.32718971371650696,
                -0.4005065858364105
              ],
              [
                -0.7385794520378113,
                0.4745974540710449,
                0.5123511552810669,
                -0.910136342048645,
                0.5998675227165222,
                0.06189970299601555
              ],
              [
                -0.16349953413009644,
                0.07312147319316864,
                -0.01509123295545578,
                -0.7125086188316345,
                0.885402262210846,
                -0.06742436438798904
              ]
            ],
            [
              [
                -1.1805158853530884,
                0.5028140544891357,
                0.9010524153709412,
                -0.9404274821281433,
                0.8200652003288269,
                -0.10298836976289749
              ],
              [
                -0.3975953161716461,
                -0.39492759108543396,
                0.7576209902763367,
                -0.3932408094406128,
                0.36713260412216187,
                0.0610102042555809
              ],
              [
                -0.9097826480865479,
                0.7033323049545288,
                0.5163902044296265,
                -1.9706202745437622,
                1.1177687644958496,
                0.5429118871688843
              ],
              [
                -1.0337200164794922,
                0.8581412434577942,
                0.4755578637123108,
                -1.1183140277862549,
                0.810906708240509,
                0.007428296376019716
              ]
            ]
          ],
          "dtype": "float32",
          "shape": [
            2,
            4,
            6
          ]
        },
        "w": {
          "data": [
            0.5324468612670898,
            1.9343631267547607,
            -6.466517925262451,
            -1.636411190032959,
            2.586742639541626,
            3.049377918243408
          ],
          "dtype": "float32",
          "shape": [
            6
          ]
        },
        "x": {
          "data": [
            [
              [
                -0.8655557036399841,
                0.1846679002046585,
                0.929588258266449,
                -0.7705214619636536,
                0.45802032947540283,
                0.0638008639216423
              ],
              [
                -0.45243242383003235,
                0.1076073944568634,
                1.0176314115524292,
                -0.5994895100593567,
                0.32718971371650696,
                -0.4005065858364105
              ],
              [
                -0.7385794520378113,
                0.4745974540710449,
                0.5123511552810669,
                -0.910136342048645,
                0.5998675227165222,
                0.06189970299601555
              ],
              [
                -0.16349953413009644,
                0.07312147319316864,
                -0.01509123295545578,
                -0.7125086188316345,
                0.885402262210846,
                -0.06742436438798904
              ]
            ],
            [
              [
                -1.1805158853530884,
                0.5028140544891357,
                0.9010524153709412,
                -0.9404274821281433,
                0.8200652003288269,
                -0.10298836976289749
              ],
              [
                -0.3975953161716461,
                -0.39492759108543396,
                0.7576209902763367,
                -0.3932408094406128,
                0.36713260412216187,
                0.0610102042555809
              ],
              [
                -0.9097826480865479,
                0.7033323049545288,
                0.5163902044296265,
                -1.9706202745437622,
                1.1177687644958496,
                0.5429118871688843
              ],
              [
                -1.0337200164794922,
                0.8581412434577942,
                0.4755578637123108,
                -1.1183140277862549,
                0.810906708240509,
                0.007428296376019716
              ]
            ]
          ],
          "dtype": "float32",
          "shape": [
            2,
            4,
            6
          ]
        }
      },
      "inputs": {
        "b": {
          "data": [
            1.5319684743881226,
            -1.4581995010375977,
            -0.456515908241272,
            -0.9365783333778381,
            0.7219626307487488,
            -0.0018230450805276632
          ],
          "dtype": "float32",
          "shape": [
            6
          ]
        },
        "residual": {
          "data": [
            [
              [
                -0.9250496625900269,
                -1.0547858476638794,
                1.093131184577942,
                -0.03554492071270943,
                -0.9161271452903748,
                0.4068015217781067
              ],
              [
                -0.5103545188903809,
                0.4131104052066803,
                -0.296083927154541,
                -0.5886507630348206,
                0.5841625928878784,
                0.8101346492767334
              ],
              [
                -1.9961448907852173,
                -1.443791389465332,
                -1.680400013923645,
                0.5232376456260681,
                0.5078486800193787,
                -0.6650426387786865
              ],
              [
                -0.12170594930648804,
                -0.7423000931739807,
                -1.9808826446533203,
                2.025662899017334,
                0.9714161157608032,
                -0.32072463631629944
              ]
            ],
            [
              [
                -0.9303892850875854,
                0.39810943603515625,
                -1.1434367895126343,
                -1.3684030771255493,
                -0.45875266194343567,
                0.13461393117904663
              ],
              [
                -1.914477825164795,
                1.1256921291351318,
                -1.333829641342163,
                -1.216178059577942,
                0.5400270223617554,
                -0.16001343727111816
              ],
              [
                0.3355395495891571,
                -0.32969802618026733,
                -0.05151374265551567,
                -0.4114423096179962,
                -0.06094741076231003,
                1.1604416370391846
              ],
              [
                0.8286331295967102,
                1.4947890043258667,
                0.40008029341697693,
                2.0176637172698975,
                -0.17435796558856964,
                0.12826135754585266
              ]
            ]
          ],
          "dtype": "float32",
          "shape": [
            2,
            4,
            6
          ]
        },
        "w": {
          "data": [
            -1.2229502201080322,
            0.6055150032043457,
            0.6521114110946655,
            -1.461810827255249,
            0.8109090328216553,
            -0.0034094182774424553
          ],
          "dtype": "float32",
          "shape": [
            6
          ]
        },
        "x": {
          "data": [
            [
              [
                0.10962825268507004,
                -1.492211937904358,
                0.19219785928726196,
                0.6998530030250549,
                -0.9866766333580017,
                -1.1416770219802856
              ],
              [
                -0.4097839593887329,
                1.2110707759857178,
                -0.6759676337242126,
                -0.4443342387676239,
                0.8603883981704712,
                0.9221438765525818
              ],
              [
                -0.5918471217155457,
                -0.1387738287448883,
                -1.3970892429351807,
                -0.3349909484386444,
                0.4705859124660492,
                0.6779356598854065
              ],
              [
                1.5413132905960083,
                -1.645263671875,
                -0.8692778944969177,
                -2.118452787399292,
                -0.7388467788696289,
                -1.0384708642959595
              ]
            ],
            [
              [
                0.6474081873893738,
                -0.6873536109924316,
                -1.1559336185455322,
                -1.5156670808792114,
                -0.5561277270317078,
                -0.16603480279445648
              ],
              [
                0.37798669934272766,
                0.9777238965034485,
                0.38981956243515015,
                -0.8086249232292175,
                -0.10331805050373077,
                -0.19347302615642548
              ],
              [
                -0.08860968053340912,
                -0.9735386371612549,
                -1.8322739601135254,
                -1.1559947729110718,
                -0.8630796074867249,
                -1.0535122156143188
              ],
              [
                -0.6200079321861267,
                0.7832110524177551,
                -1.6399849653244019,
                -0.7320919632911682,
                0.5318803787231445,
                -0.36848482489585876
              ]
            ]
          ],
          "dtype": "float32",
          "shape": [
            2,
            4,
            6
          ]
        }
      },
      "outputs": {
        "residual_out": {
          "data": [
            [
              [
                -0.8154214024543762,
                -2.5469977855682373,
                1.2853291034698486,
                0.6643080711364746,
                -1.9028037786483765,
                -0.734875500202179
              ],
              [
                -0.9201384782791138,
                1.6241811513900757,
                -0.9720515608787537,
                -1.032984972000122,
                1.4445509910583496,
                1.73227858543396
              ],
              [
                -2.587991952896118,
                -1.582565188407898,
                -3.0774893760681152,
                0.1882466971874237,
                0.9784345626831055,
                0.01289302110671997
              ],
              [
                1.419607400894165,
                -2.387563705444336,
                -2.850160598754883,
                -0.09278988838195801,
                0.23256933689117432,
                -1.3591954708099365
              ]
            ],
            [
              [
                -0.28298109769821167,
                -0.2892441749572754,
                -2.299370288848877,
                -2.8840701580047607,
                -1.0148804187774658,
                -0.03142087161540985
              ],
              [
                -1.5364911556243896,
                2.1034159660339355,
                -0.9440100789070129,
                -2.0248029232025146,
                0.4367089867591858,
                -0.35348647832870483
              ],
              [
                0.24692986905574799,
                -1.303236722946167,
                -1.883787751197815,
                -1.5674370527267456,
                -0.9240270256996155,
                0.10692942142486572
              ],
              [
                0.2086251974105835,
                2.2780001163482666,
                -1.2399046421051025,
                1.285571813583374,
                0.3575224280357361,
                -0.2402234673500061
              ]
            ]
          ],
          "dtype": "float32",
          "shape": [
            2,
            4,
            6
          ]
        },
        "y": {
          "data": [
            [
              [
                1.66066312789917,
                -2.308101177215576,
                0.502054750919342,
                -2.4046690464019775,
                -0.024538036435842514,
                -0.0016701732529327273
              ],
              [
                2.6999094486236572,
                -0.8429740071296692,
                -1.1055203676223755,
                0.5872716307640076,
                1.4330320358276367,
                -0.005572650581598282
              ],
              [
                2.8160057067871094,
                -1.688518762588501,
                -1.3537819385528564,
                -2.1044678688049316,
                1.796557068824768,
                -0.0041487920098006725
              ],
              [
                -0.308603972196579,
                -2.082622528076172,
                -1.3299528360366821,
                -1.6638305187225342,
                1.3011527061462402,
                -0.0006428734632208943
              ]
            ],
            [
              [
                0.5748364329338074,
                -0.9877871870994568,
                -1.1558886766433716,
                1.4175355434417725,
                0.8105792999267578,
                -0.005280475132167339
              ],
              [
                2.5615782737731934,
                -0.35450658202171326,
                -0.7226903438568115,
                0.8166905045509338,
                1.2106163501739502,
                -0.0019053048454225063
              ],
              [
                -0.18765510618686676,
                -1.7702884674072266,
                -1.2619019746780396,
                0.29558974504470825,
                0.6851844191551208,
                -0.006025449838489294
              ],
              [
                1.787858009338379,
                -0.45951128005981445,
                -1.4413360357284546,
                -2.0446228981018066,
                0.6607300639152527,
                0.00026475402410142124
              ]
            ]
          ],
          "dtype": "float32",
          "shape": [
            2,
            4,
            6
          ]
        }
      }
    },
    "rms_norm": {
      "gradients": {
        "w": {
          "data": [
            4.714756011962891,
            -1.376178503036499,
            -3.9465527534484863,
            -0.0855567455291748,
            -1.4674112796783447,
            -1.5281116962432861
          ],
          "dtype": "float32",
          "shape": [
            6
          ]
        },
        "x": {
          "data": [
            [
              [
                -0.1658734530210495,
                0.3108500838279724,
                0.17908959090709686,
                0.7795131802558899,
                -0.12372363358736038,
                -0.45930373668670654
              ],
              [
                0.32506656646728516,
                0.10743234306573868,
                0.08370009064674377,
                0.728258490562439,
                -0.07889194041490555,
                -0.3340183198451996
              ],
              [
                -0.14971841871738434,
                0.40980374813079834,
                0.3024032711982727,
                0.8984590768814087,
                -0.2146010845899582,
                -0.5964962840080261
              ],
              [
                -0.22993434965610504,
                0.3650924265384674,
                0.17201611399650574,
                0.8068753480911255,
                -0.178666353225708,
                -0.4323567748069763
              ]
            ],
            [
              [
                -0.4536316394805908,
                0.25947850942611694,
                0.257962167263031,
                0.7608590722084045,
                -0.3219091296195984,
                -0.2335902601480484
              ],
              [
                -0.3824267089366913,
                0.42658731341362,
                0.5151267051696777,
                0.7592071890830994,
                -0.21614810824394226,
                -0.8775484561920166
              ],
              [
                -0.16136778891086578,
                0.8667582273483276,
                0.37276238203048706,
                0.5679742693901062,
                -0.0034608938731253147,
                0.1331808716058731
              ],
              [
                -0.34295785427093506,
                0.39750418066978455,
                0.2438296526670456,
                0.7149752974510193,
                -0.04296840354800224,
                -0.46864238381385803
              ]
            ]
          ],
          "dtype": "float32",
          "shape": [
            2,
            4,
            6
          ]
        }
      },
      "inputs": {
        "w": {
          "data": [
            -0.2420598715543747,
            0.32268843054771423,
            0.2802031636238098,
            0.8019300699234009,
            -0.18394599854946136,
            -0.4660540819168091
          ],
          "dtype": "float32",
          "shape": [
            6
          ]
        },
        "x": {
          "data": [
            [
              [
                1.3362438678741455,
                0.15793855488300323,
                -1.8260928392410278,
                0.5438637733459473,
                1.0657284259796143,
                -0.45175543427467346
              ],
              [
                1.935247778892517,
                -0.775208055973053,
                -0.7051394581794739,
                -0.38716921210289,
                0.382997065782547,
                0.5227521657943726
              ],
              [
                1.8216660022735596,
                0.5222527980804443,
                -0.29670068621635437,
                -0.38603371381759644,
                -0.03095012903213501,
                -0.8191706538200378
              ],
              [
                0.17393644154071808,
                0.9956797361373901,
                -2.1746792793273926,
                0.369367778301239,
                0.04970746487379074,
                0.5518457293510437
              ]
            ],
            [
              [
                -1.3394086360931396,
                -0.4813939034938812,
                -0.20365463197231293,
                -0.4345787763595581,
                -0.8680430054664612,
                1.6222000122070312
              ],
              [
                -0.18485121428966522,
                -0.08355928957462311,
                0.5011991858482361,
                -1.4008464813232422,
                0.1547859162092209,
                -0.9159153699874878
              ],
              [
                -0.2810841202735901,
                -0.4940844774246216,
                0.07743769884109497,
                0.8867216110229492,
                -0.37247827649116516,
                -1.132981777191162
              ],
              [
                1.2288914918899536,
                -0.9294052720069885,
                0.3963530957698822,
                0.9307538866996765,
                -1.6507407426834106,
                0.08991397172212601
              ]
            ]
          ],
          "dtype": "float32",
          "shape": [
            2,
            4,
            6
          ]
        }
      },
      "outputs": {
        "y": {
          "data": [
            [
              [
                -0.3042600452899933,
                0.047941096127033234,
                -0.4813182055950165,
                0.41026362776756287,
                -0.18440526723861694,
                0.1980505734682083
              ],
              [
                -0.49318212270736694,
                -0.2633599042892456,
                -0.20801566541194916,
                -0.3268776834011078,
                -0.07417093217372894,
                -0.25649574398994446
              ],
              [
                -0.509152352809906,
                0.19458994269371033,
                -0.09599482268095016,
                -0.3574521839618683,
                0.006573686376214027,
                0.4408256709575653
              ],
              [
                -0.04143742099404335,
                0.3162149488925934,
                -0.5997186899185181,
                0.29152435064315796,
                -0.008998938836157322,
                -0.2531239986419678
              ]
            ],
            [
              [
                0.3343709707260132,
                -0.16020523011684418,
                -0.05885183438658714,
                -0.3594162166118622,
                0.16467371582984924,
                -0.7797105312347412
              ],
              [
                0.062074217945337296,
                -0.03740626201033592,
                0.19482719898223877,
                -1.5584511756896973,
                -0.03949917107820511,
                0.5921855568885803
              ],
              [
                0.10461804270744324,
                -0.2451501190662384,
                0.03336360678076744,
                1.0933804512023926,
                0.1053510308265686,
                0.8119078278541565
              ],
              [
                -0.29428455233573914,
                -0.29670143127441406,
                0.10987184941768646,
                0.7384184002876282,
                0.3004002869129181,
                -0.041456691920757294
              ]
            ]
          ],
          "dtype": "float32",
          "shape": [
            2,
            4,
            6
          ]
        }
      }
    }
  },
  "meta": {
    "cuda": "12.6",
    "device": "cuda:0",
    "mamba_commit": "10b5d6358f27966f6a40e4bf0baa17a460688128",
    "mamba_repo": "/home/b/projects/mamba",
    "torch": "2.7.1+cu126"
  },
  "selective_scan": {
    "complex_A_packed_BC": {
      "gradients": {
        "A": {
          "data_imag": [
            [
              -3.1187829971313477,
              -1.4677544832229614,
              1.0145155191421509,
              -6.759399890899658
            ],
            [
              -250.6125030517578,
              17.98847007751465,
              -6.145467281341553,
              6.061751365661621
            ],
            [
              3.6910252571105957,
              14.686344146728516,
              95.57066345214844,
              4.45557975769043
            ]
          ],
          "data_real": [
            [
              2.6326534748077393,
              4.3517961502075195,
              -0.7940310835838318,
              5.670841693878174
            ],
            [
              169.3459930419922,
              37.19377517700195,
              -27.773395538330078,
              61.89226531982422
            ],
            [
              -5.820207118988037,
              -1.9444494247436523,
              -6.727175235748291,
              -0.08062458038330078
            ]
          ],
          "dtype": "complex64",
          "shape": [
            3,
            4
          ]
        },
        "B": {
          "data": [
            [
              [
                1.3913183212280273,
                12.278166770935059,
                0.5459835529327393,
                -2.561323642730713,
                3.7424092292785645,
                3.263002395629883,
                0.005503818392753601,
                0.3285020887851715,
                -0.6114907264709473,
                0.04851739853620529
              ],
              [
                14.798418045043945,
                -13.969711303710938,
                -13.16101360321045,
                15.543445587158203,
                6.6991777420043945,
                -0.963653564453125,
                -1.1052031517028809,
                0.9722687005996704,
                -0.16010336577892303,
                0.5159472227096558
              ],
              [
                -2.6515657901763916,
                -3.7632272243499756,
                0.5939648747444153,
                0.7589303851127625,
                0.46029558777809143,
                0.5457048416137695,
                -1.2128123044967651,
                -1.019147515296936,
                0.015757538378238678,
                1.1717731952667236
              ],
              [
                -0.5949068069458008,
                -5.914077281951904,
                2.6418228149414062,
                1.3454612493515015,
                2.6746301651000977,
                3.6038641929626465,
                0.2999468147754669,
                -0.16382014751434326,
                0.5030838847160339,
                0.7038919925689697
              ]
            ],
            [
              [
                -64.3567886352539,
                -173.48648071289062,
                1.8573637008666992,
                9.721197128295898,
                50.61474609375,
                117.40231323242188,
                21.789936065673828,
                28.271751403808594,
                -2.304086685180664,
                -9.350518226623535
              ],
              [
                2.595693588256836,
                0.04118578881025314,
                7.319591999053955,
                -3.0292375087738037,
                -3.1188056468963623,
                -1.065503716468811,
                -18.55508041381836,
                4.616904258728027,
                1.4763801097869873,
                -6.584122657775879
              ],
              [
                1.3850914239883423,
                3.010984182357788,
                -16.776580810546875,
                -24.78326988220215,
                12.41113567352295,
                12.30258846282959,
                3.138157367706299,
                15.858621597290039,
                2.1345157623291016,
                -10.727095603942871
              ],
              [
                -3.3602705001831055,
                -10.523548126220703,
                -5.742779731750488,
                -6.6845831871032715,
                10.98275089263916,
                13.404964447021484,
                18.23067283630371,
                10.362619400024414,
                -4.490724563598633,
                -7.316764831542969
              ]
            ]
          ],
          "dtype": "float32",
          "shape": [
            2,
            4,
            10
          ]
        },
        "C": {
          "data": [
            [
              [
                7.616276741027832,
                5.279994487762451,
                17.808610916137695,
                14.023964881896973,
                4.100193500518799,
                7.599991798400879,
                3.5510060787200928,
                4.400522232055664,
                5.889060020446777,
                4.335772514343262
              ],
              [
                0.3833431303501129,
                -7.303807258605957,
                -0.37146300077438354,
                -4.365928649902344,
                1.0112719535827637,
                -9.344220161437988,
                -3.716193914413452,
                -9.904350280761719,
                -3.138399839401245,
                -2.2715563774108887
              ],
              [
                -2.760847330093384,
                0.7595733404159546,
                -2.941527843475342,
                5.160699367523193,
                -3.0474817752838135,
                0.3075077533721924,
                -0.0656273365020752,
                -1.2989418506622314,
                0.8599789142608643,
                -3.0183279514312744
              ],
              [
                -1.1721508502960205,
                10.277913093566895,
                -5.3224897384643555,
                13.170793533325195,
                -1.8809125423431396,
                5.342419624328613,
                -0.9413238763809204,
                2.554248809814453,
                -2.2598583698272705,
                2.649775505065918
              ]
            ],
            [
              [
                0.6964364051818848,
                0.4051860570907593,
                10.432917594909668,
                7.340670585632324,
                2.16111421585083,
                6.412134170532227,
                3.477494239807129,
                8.669694900512695,
                13.803335189819336,
                45.72745132446289
              ],
              [
                -0.01984935998916626,
                -0.22535771131515503,
                -1.1426472663879395,
                0.9857979416847229,
                5.60026741027832,
                8.627541542053223,
                -5.1211066246032715,
                6.544890880584717,
                -12.428897857666016,
                5.924163818359375
              ],
              [
                -0.09967896342277527,
                1.396235704421997,
                4.459107875823975,
                0.6353023052215576,
                7.282108783721924,
                7.748401641845703,
                17.82440185546875,
                1.8241844177246094,
                1.3979167938232422,
                -3.8731918334960938
              ],
              [
                -1.2487285137176514,
                1.866979956626892,
                -0.39702796936035156,
                3.5049185752868652,
                -3.328004837036133,
                5.263121604919434,
                -0.6053476333618164,
                -1.837110996246338,
                7.272526741027832,
                -4.922038555145264
              ]
            ]
          ],
          "dtype": "float32",
          "shape": [
            2,
            4,
            10
          ]
        },
        "delta": {
          "data": [
            [
              [
                8.898818016052246,
                7.665801525115967,
                3.967350959777832,
                -2.250458240509033,
                -5.873066425323486
              ],
              [
                -7.897975444793701,
                -10.998078346252441,
                23.73389434814453,
                20.827980041503906,
                -1.7681652307510376
              ],
              [
                -0.1017923504114151,
                4.373095512390137,
                -5.859476089477539,
                12.291184425354004,
                -4.610782623291016
              ]
            ],
            [
              [
                2.085495948791504,
                0.8595752716064453,
                5.895869731903076,
                5.468881607055664,
                -10.164566040039062
              ],
              [
                44.06639099121094,
                34.48379135131836,
                -71.69535827636719,
                82.00955963134766,
                106.00729370117188
              ],
              [
                3.9114017486572266,
                3.4620134830474854,
                -3.749462366104126,
                41.25103759765625,
                -16.24495506286621
              ]
            ]
          ],
          "dtype": "float32",
          "shape": [
            2,
            3,
            5
          ]
        },
        "u": {
          "data": [
            [
              [
                1.3404624462127686,
                -1.4539092779159546,
                -8.470864295959473,
                6.476673126220703,
                -1.957440733909607
              ],
              [
                -14.406169891357422,
                2.8146560192108154,
